#! FIELDS energy b1.bias der_energy
#! SET min_energy -15000
#! SET max_energy -12250
#! SET nbins_energy  201
#! SET periodic_energy false
 -15000.000000000 -117.389755287    0.156770712
 -14986.250000000 -118.958556889    0.073894656
 -14972.500000000 -119.485826147    0.004980515
 -14958.750000000 -119.151745089   -0.051661600
 -14945.000000000 -118.114294867   -0.097572662
 -14931.250000000 -116.511236589   -0.134154363
 -14917.500000000 -114.461962810   -0.162678293
 -14903.750000000 -112.069225815   -0.184294686
 -14890.000000000 -109.420748610   -0.200040738
 -14876.250000000 -106.590724364   -0.210848515
 -14862.500000000 -103.641209813   -0.217552469
 -14848.750000000 -100.623417994   -0.220896571
 -14835.000000000  -97.578915457   -0.221541074
 -14821.250000000  -94.540728929   -0.220068919
 -14807.500000000  -91.534366239   -0.216991805
 -14793.750000000  -88.578756132   -0.212755922
 -14780.000000000  -85.687111413   -0.207747365
 -14766.250000000  -82.867719739   -0.202297251
 -14752.500000000  -80.124666160   -0.196686530
 -14738.750000000  -77.458491407   -0.191150522
 -14725.000000000  -74.866789724   -0.185883176
 -14711.250000000  -72.344749919   -0.181041069
 -14697.500000000  -69.885643155   -0.176747159
 -14683.750000000  -67.481260848   -0.173094289
 -14670.000000000  -65.122305918   -0.170148471
 -14656.250000000  -62.798740483   -0.167951938
 -14642.500000000  -60.500092967   -0.166525996
 -14628.750000000  -58.215727457   -0.165873667
 -14615.000000000  -55.935078020   -0.165982145
 -14601.250000000  -53.647850566   -0.166825058
 -14587.500000000  -51.344194721   -0.168364571
 -14573.750000000  -49.014848076   -0.170553306
 -14560.000000000  -46.651255031   -0.173336114
 -14546.250000000  -44.245662380   -0.176651690
 -14532.500000000  -41.791193641   -0.180434048
 -14518.750000000  -39.281904072   -0.184613861
 -14505.000000000  -36.712818171   -0.189119668
 -14491.250000000  -34.079951389   -0.193878962
 -14477.500000000  -31.380317684   -0.198819165
 -14463.750000000  -28.611924445   -0.203868492
 -14450.000000000  -25.773756233   -0.208956713
 -14436.250000000  -22.865748704   -0.214015820
 -14422.500000000  -19.888753982   -0.218980606
 -14408.750000000  -16.844498687   -0.223789155
 -14395.000000000  -13.735535731   -0.228383256
 -14381.250000000  -10.565190932   -0.232708748
 -14367.500000000   -7.337505408   -0.236715790
 -14353.750000000   -4.057174672   -0.240359068
 -14340.000000000   -0.729485242   -0.243597951
 -14326.250000000    2.639750446   -0.246396586
 -14312.500000000    6.044260124   -0.248723945
 -14298.750000000    9.477378114   -0.250553830
 -14285.000000000   12.932111510   -0.251864832
 -14271.250000000   16.401205569   -0.252640259
 -14257.500000000   19.877207825   -0.252868023
 -14243.750000000   23.352530502   -0.252540505
 -14230.000000000   26.819510831   -0.251654386
 -14216.250000000   30.270468918   -0.250210462
 -14202.500000000   33.697762888   -0.248213430
 -14188.750000000   37.093841029   -0.245671667
 -14175.000000000   40.451290722   -0.242596989
 -14161.250000000   43.762883984   -0.239004393
 -14147.500000000   47.021619466   -0.234911801
 -14133.750000000   50.220760807   -0.230339790
 -14120.000000000   53.353871251   -0.225311317
 -14106.250000000   56.414844487   -0.219851443
 -14092.500000000   59.397931679   -0.213987057
 -14078.750000000   62.297764694   -0.207746599
 -14065.000000000   65.109375553   -0.201159789
 -14051.250000000   67.828212155   -0.194257353
 -14037.500000000   70.450150335   -0.187070767
 -14023.750000000   72.971502366   -0.179631996
 -14010.000000000   75.389021982   -0.171973246
 -13996.250000000   77.699906070   -0.164126730
 -13982.500000000   79.901793157   -0.156124438
 -13968.750000000   81.992758833   -0.147997918
 -13955.000000000   83.971308297   -0.139778076
 -13941.250000000   85.836366163   -0.131494982
 -13927.500000000   87.587263741   -0.123177692
 -13913.750000000   89.223723955   -0.114854087
 -13900.000000000   90.745844108   -0.106550718
 -13886.250000000   92.154076687   -0.098292675
 -13872.500000000   93.449208408   -0.090103465
 -13858.750000000   94.632337725   -0.082004907
 -13845.000000000   95.704850980   -0.074017044
 -13831.250000000   96.668397437   -0.066158065
 -13817.500000000   97.524863384   -0.058444248
 -13803.750000000   98.276345519   -0.050889914
 -13790.000000000   98.925123826   -0.043507398
 -13776.250000000   99.473634137   -0.036307033
 -13762.500000000   99.924440587   -0.029297149
 -13748.750000000  100.280208141   -0.022484086
 -13735.000000000  100.543675395   -0.015872219
 -13721.250000000  100.717627820   -0.009463998
 -13707.500000000  100.804871632   -0.003260000
 -13693.750000000  100.808208448    0.002741009
 -13680.000000000  100.730410886    0.008542000
 -13666.250000000  100.574199267    0.014147593
 -13652.500000000  100.342219546    0.019563969
 -13638.750000000  100.037022612    0.024798757
 -13625.000000000   99.661045075    0.029860930
 -13611.250000000   99.216591647    0.034760680
 -13597.500000000   98.705819212    0.039509296
 -13583.750000000   98.130722689    0.044119026
 -13570.000000000   97.493122737    0.048602944
 -13556.250000000   96.794655394    0.052974807
 -13542.500000000   96.036763671    0.057248910
 -13528.750000000   95.220691181    0.061439936
 -13515.000000000   94.347477782    0.065562814
 -13501.250000000   93.417957294    0.069632561
 -13487.500000000   92.432757263    0.073664138
 -13473.750000000   91.392300775    0.077672298
 -13460.000000000   90.296810298    0.081671445
 -13446.250000000   89.146313509    0.085675485
 -13432.500000000   87.940651079    0.089697690
 -13418.750000000   86.679486332    0.093750562
 -13405.000000000   85.362316735    0.097845703
 -13391.250000000   83.988487117    0.101993692
 -13377.500000000   82.557204536    0.106203970
 -13363.750000000   81.067554693    0.110484731
 -13350.000000000   79.518519773    0.114842823
 -13336.250000000   77.908997593    0.119283656
 -13322.500000000   76.237821925    0.123811122
 -13308.750000000   74.503783853    0.128427527
 -13295.000000000   72.705654015    0.133133531
 -13281.250000000   70.842205571    0.137928100
 -13267.500000000   68.912237728    0.142808474
 -13253.750000000   66.914599665    0.147770143
 -13240.000000000   64.848214659    0.152806838
 -13226.250000000   62.712104255    0.157910537
 -13212.500000000   60.505412268    0.163071480
 -13198.750000000   58.227428452    0.168278207
 -13185.000000000   55.877611624    0.173517597
 -13171.250000000   53.455612059    0.178774932
 -13157.500000000   50.961292961    0.184033972
 -13143.750000000   48.394750812    0.189277043
 -13130.000000000   45.756334406    0.194485137
 -13116.250000000   43.046662388    0.199638031
 -13102.500000000   40.266639090    0.204714415
 -13088.750000000   37.417468508    0.209692038
 -13075.000000000   34.500666221    0.214547857
 -13061.250000000   31.518069096    0.219258210
 -13047.500000000   28.471842615    0.223798991
 -13033.750000000   25.364485672    0.228145843
 -13020.000000000   22.198832705    0.232274351
 -13006.250000000   18.978053024    0.236160254
 -12992.500000000   15.705647246    0.239779661
 -12978.750000000   12.385440707    0.243109270
 -12965.000000000    9.021573799    0.246126593
 -12951.250000000    5.618489158    0.248810194
 -12937.500000000    2.180915658    0.251139914
 -12923.750000000   -1.286150797    0.253097109
 -12910.000000000   -4.777469697    0.254664883
 -12896.250000000   -8.287581509    0.255828313
 -12882.500000000  -11.810836396    0.256574678
 -12868.750000000  -15.341425959    0.256893670
 -12855.000000000  -18.873417900    0.256777609
 -12841.250000000  -22.400793454    0.256221630
 -12827.500000000  -25.917487405    0.255223869
 -12813.750000000  -29.417430469    0.253785625
 -12800.000000000  -32.894593780    0.251911500
 -12786.250000000  -36.343035187    0.249609522
 -12772.500000000  -39.756947009    0.246891236
 -12758.750000000  -43.130704878    0.243771768
 -12745.000000000  -46.458917209    0.240269855
 -12731.250000000  -49.736474848    0.236407834
 -12717.500000000  -52.958600322    0.232211602
 -12703.750000000  -56.120896143    0.227710514
 -12690.000000000  -59.219391486    0.222937246
 -12676.250000000  -62.250586555    0.217927598
 -12662.500000000  -65.211493870    0.212720241
 -12648.750000000  -68.099675638    0.207356401
 -12635.000000000  -70.913276316    0.201879473
 -12621.250000000  -73.651049409    0.196334568
 -12607.500000000  -76.312377453    0.190767976
 -12593.750000000  -78.897284091    0.185226547
 -12580.000000000  -81.406437037    0.179756988
 -12566.250000000  -83.841140681    0.174405059
 -12552.500000000  -86.203316969    0.169214667
 -12538.750000000  -88.495473145    0.164226861
 -12525.000000000  -90.720654819    0.159478702
 -12511.250000000  -92.882382755    0.155002025
 -12497.500000000  -94.984571681    0.150822060
 -12483.750000000  -97.031429305    0.146955929
 -12470.000000000  -99.027333656    0.143410997
 -12456.250000000 -100.976686729    0.140183072
 -12442.500000000 -102.883742332    0.137254452
 -12428.750000000 -104.752405923    0.134591802
 -12415.000000000 -106.586004098    0.132143862
 -12401.250000000 -108.387021283    0.129838967
 -12387.500000000 -110.156801085    0.127582383
 -12373.750000000 -111.895209588    0.125253437
 -12360.000000000 -113.600257812    0.122702443
 -12346.250000000 -115.267680374    0.119747406
 -12332.500000000 -116.890467291    0.116170500
 -12318.750000000 -118.458345719    0.111714307
 -12305.000000000 -119.957208279    0.106077804
 -12291.250000000 -121.368484480    0.098912099
 -12277.500000000 -122.668451616    0.089815893
 -12263.750000000 -123.827481337    0.078330656
 -12250.000000000 -124.809217977    0.063935521
