#! FIELDS energy b1.bias der_energy
#! SET min_energy -15000
#! SET max_energy -12250
#! SET nbins_energy  201
#! SET periodic_energy false
 -15000.000000000 -189.547683357   -0.993174544
 -14986.250000000 -177.276379069   -0.799884880
 -14972.500000000 -167.343588189   -0.651840448
 -14958.750000000 -159.174481399   -0.542281174
 -14945.000000000 -152.282396567   -0.465134260
 -14931.250000000 -146.259735440   -0.414964193
 -14917.500000000 -140.769529666   -0.386925361
 -14903.750000000 -135.537640887   -0.376717194
 -14890.000000000 -130.345560947   -0.380541720
 -14876.250000000 -125.023779500   -0.395063464
 -14862.500000000 -119.445687512   -0.417371583
 -14848.750000000 -113.521986379   -0.444944174
 -14835.000000000 -107.195573514   -0.475614648
 -14821.250000000 -100.436876406   -0.507540110
 -14807.500000000  -93.239608285   -0.539171643
 -14793.750000000  -85.616919573   -0.569226439
 -14780.000000000  -77.597920391   -0.596661686
 -14766.250000000  -69.224550402   -0.620650147
 -14752.500000000  -60.548773286   -0.640557350
 -14738.750000000  -51.630074118   -0.655920328
 -14725.000000000  -42.533238865   -0.666427832
 -14711.250000000  -33.326396153   -0.671901956
 -14697.500000000  -24.079302370   -0.672281111
 -14683.750000000  -14.861852012   -0.667604277
 -14670.000000000   -5.742796078   -0.657996480
 -14656.250000000    3.211347891   -0.643655427
 -14642.500000000   11.937209689   -0.624839251
 -14628.750000000   20.375319060   -0.601855301
 -14615.000000000   28.470711071   -0.575049925
 -14601.250000000   36.173397554   -0.544799197
 -14587.500000000   43.438717204   -0.511500535
 -14573.750000000   50.227576229   -0.475565151
 -14560.000000000   56.506590778   -0.437411308
 -14546.250000000   62.248141723   -0.397458308
 -14532.500000000   67.430351749   -0.356121192
 -14518.750000000   72.036994096   -0.313806098
 -14505.000000000   76.057341700   -0.270906222
 -14491.250000000   79.485964947   -0.227798374
 -14477.500000000   82.322485660   -0.184840057
 -14463.750000000   84.571294464   -0.142367048
 -14450.000000000   86.241238129   -0.100691448
 -14436.250000000   87.345283024   -0.060100149
 -14422.500000000   87.900160331   -0.020853712
 -14408.750000000   87.925998245    0.016814413
 -14395.000000000   87.445945916    0.052698312
 -14381.250000000   86.485793502    0.086619749
 -14367.500000000   85.073592306    0.118428023
 -14353.750000000   83.239278561    0.147999579
 -14340.000000000   81.014304105    0.175237401
 -14326.250000000   78.431276811    0.200070206
 -14312.500000000   75.523613314    0.222451462
 -14298.750000000   72.325206280    0.242358261
 -14285.000000000   68.870108133    0.259790053
 -14271.250000000   65.192232900    0.274767281
 -14257.500000000   61.325077550    0.287329915
 -14243.750000000   57.301463963    0.297535919
 -14230.000000000   53.153302410    0.305459658
 -14216.250000000   48.911377201    0.311190269
 -14202.500000000   44.605154980    0.314829997
 -14188.750000000   40.262615887    0.316492537
 -14175.000000000   35.910107689    0.316301354
 -14161.250000000   31.572222757    0.314388038
 -14147.500000000   27.271697632    0.310890669
 -14133.750000000   23.029334790    0.305952224
 -14120.000000000   18.863946036    0.299719024
 -14106.250000000   14.792316875    0.292339237
 -14092.500000000   10.829191093    0.283961438
 -14078.750000000    6.987274637    0.274733242
 -14065.000000000    3.277257858    0.264800002
 -14051.250000000   -0.292144960    0.254303597
 -14037.500000000   -3.714139891    0.243381292
 -14023.750000000   -6.983782664    0.232164695
 -14010.000000000  -10.097894200    0.220778801
 -13996.250000000  -13.054963663    0.209341134
 -13982.500000000  -15.855040324    0.197960975
 -13968.750000000  -18.499615588    0.186738705
 -13955.000000000  -20.991496517    0.175765225
 -13941.250000000  -23.334672206    0.165121495
 -13927.500000000  -25.534174389    0.154878159
 -13913.750000000  -27.595933600    0.145095270
 -13900.000000000  -29.526632251    0.135822116
 -13886.250000000  -31.333555932    0.127097140
 -13872.500000000  -33.024444237    0.118947945
 -13858.750000000  -34.607342365    0.111391404
 -13845.000000000  -36.090454729    0.104433841
 -13831.250000000  -37.482001749    0.098071312
 -13817.500000000  -38.790080966    0.092289954
 -13803.750000000  -40.022533542    0.087066417
 -13790.000000000  -41.186817190    0.082368365
 -13776.250000000  -42.289886469    0.078155048
 -13762.500000000  -43.338081361    0.074377934
 -13748.750000000  -44.337024938    0.070981397
 -13735.000000000  -45.291530883    0.067903461
 -13721.250000000  -46.205521542    0.065076588
 -13707.500000000  -47.081957101    0.062428507
 -13693.750000000  -47.922776418    0.059883078
 -13680.000000000  -48.728849944    0.057361188
 -13666.250000000  -49.499945086    0.054781662
 -13652.500000000  -50.234704293    0.052062200
 -13638.750000000  -50.930636035    0.049120317
 -13625.000000000  -51.584118782    0.045874294
 -13611.250000000  -52.190417998    0.042244115
 -13597.500000000  -52.743716063    0.038152409
 -13583.750000000  -53.237154964    0.033525371
 -13570.000000000  -53.662891513    0.028293656
 -13556.250000000  -54.012164741    0.022393255
 -13542.500000000  -54.275375069    0.015766334
 -13528.750000000  -54.442174732    0.008362030
 -13515.000000000  -54.501568888    0.000137207
 -13501.250000000  -54.442026737   -0.008942844
 -13487.500000000  -54.251601925   -0.018903755
 -13473.750000000  -53.918061404   -0.029761504
 -13460.000000000  -53.429021865   -0.041521888
 -13446.250000000  -52.772092803   -0.054180089
 -13432.500000000  -51.935025185   -0.067720293
 -13418.750000000  -50.905864643   -0.082115410
 -13405.000000000  -49.673108070   -0.097326867
 -13391.250000000  -48.225862420   -0.113304490
 -13377.500000000  -46.554004491   -0.129986478
 -13363.750000000  -44.648340414   -0.147299475
 -13350.000000000  -42.500763538   -0.165158732
 -13336.250000000  -40.104409374   -0.183468373
 -13322.500000000  -37.453806236   -0.202121753
 -13308.750000000  -34.545020191   -0.221001929
 -13295.000000000  -31.375792942   -0.239982219
 -13281.250000000  -27.945671233   -0.258926872
 -13267.500000000  -24.256126388   -0.277691837
 -13253.750000000  -20.310662609   -0.296125627
 -13240.000000000  -16.114912671   -0.314070286
 -13226.250000000  -11.676719668   -0.331362454
 -13212.500000000   -7.006203533   -0.347834516
 -13198.750000000   -2.115811052   -0.363315849
 -13185.000000000    2.979651799   -0.377634150
 -13171.250000000    8.263006349   -0.390616843
 -13157.500000000   13.714707618   -0.402092566
 -13143.750000000   19.312871562   -0.411892719
 -13130.000000000   25.033324070   -0.419853075
 -13116.250000000   30.849672500   -0.425815445
 -13102.500000000   36.733400390   -0.429629387
 -13088.750000000   42.653985919   -0.431153947
 -13075.000000000   48.579044476   -0.430259424
 -13061.250000000   54.474495618   -0.426829149
 -13047.500000000   60.304754467   -0.420761259
 -13033.750000000   66.032947485   -0.411970468
 -13020.000000000   71.621152318   -0.400389794
 -13006.250000000   77.030661244   -0.385972260
 -12992.500000000   82.222267508   -0.368692525
 -12978.750000000   87.156573633   -0.348548440
 -12965.000000000   91.794320523   -0.325562515
 -12951.250000000   96.096735919   -0.299783269
 -12937.500000000  100.025900526   -0.271286442
 -12923.750000000  103.545129795   -0.240176054
 -12910.000000000  106.619369078   -0.206585293
 -12896.250000000  109.215599534   -0.170677184
 -12882.500000000  111.303251841   -0.132645048
 -12868.750000000  112.854624399   -0.092712700
 -12855.000000000  113.845302373   -0.051134361
 -12841.250000000  114.254573497   -0.008194272
 -12827.500000000  114.065836195    0.035794040
 -12813.750000000  113.266995142    0.080488864
 -12800.000000000  111.850838926    0.125521810
 -12786.250000000  109.815394069    0.170499749
 -12772.500000000  107.164249126    0.215007230
 -12758.750000000  103.906842147    0.258609400
 -12745.000000000  100.058704230    0.300855477
 -12731.250000000   95.641651376    0.341282801
 -12717.500000000   90.683916321    0.379421525
 -12703.750000000   85.220211419    0.414799956
 -12690.000000000   79.291713075    0.446950633
 -12676.250000000   72.945957614    0.475417143
 -12662.500000000   66.236637830    0.499761752
 -12648.750000000   59.223288804    0.519573895
 -12635.000000000   51.970850916    0.534479555
 -12621.250000000   44.549097255    0.544151615
 -12607.500000000   37.031911928    0.548321206
 -12593.750000000   29.496405015    0.546790125
 -12580.000000000   22.021849160    0.539444373
 -12566.250000000   14.688421975    0.526268871
 -12552.500000000    7.575737655    0.507363416
 -12538.750000000    0.761150339    0.482959934
 -12525.000000000   -5.682189113    0.453441104
 -12511.250000000  -11.687542113    0.419360407
 -12497.500000000  -17.197077241    0.381463670
 -12483.750000000  -22.164672085    0.340712180
 -12470.000000000  -26.559044045    0.298307432
 -12456.250000000  -30.367233099    0.255717590
 -12442.500000000  -33.598460539    0.214705723
 -12428.750000000  -36.288388735    0.177359913
 -12415.000000000  -38.503808040    0.146125291
 -12401.250000000  -40.347778053    0.123838100
 -12387.500000000  -41.965251553    0.113761859
 -12373.750000000  -43.549210607    0.119625705
 -12360.000000000  -45.347345476    0.145665020
 -12346.250000000  -47.669308194    0.196664409
 -12332.500000000  -50.894573906    0.278003138
 -12318.750000000  -55.480944295    0.395703105
 -12305.000000000  -61.973728767    0.556479468
 -12291.250000000  -71.015640313    0.767793992
 -12277.500000000  -83.357444390    1.037911238
 -12263.750000000  -99.869400476    1.375957699
 -12250.000000000 -121.553537412    1.791983956
